100 64
89 -0.31308338 -0.021256886 0.19029348 -0.013996226 -0.5563318 -0.12160849 0.20633343 -0.053434722 -0.31602868 0.30006447 -0.09671726 0.47402215 -0.10937965 -0.24057767 0.056167427 -0.24178548 -0.2049113 -0.03361037 0.070780136 -0.38051003 0.14177366 0.31092736 0.43405634 0.31750873 -0.40214312 0.119278125 -0.035238218 -0.0788368 0.34002188 -0.19237351 0.013109749 0.44434932 0.24479355 0.09954902 -0.32132015 0.016005863 0.20923732 0.28996867 0.21492389 0.044536293 0.23552686 -0.25426367 0.14792813 0.30894113 -0.016080627 -0.034176398 0.13469371 -0.17950585 0.011371402 0.03673641 -0.09733598 -0.31938148 0.5191548 0.059426438 0.3136429 -0.32982388 0.21854566 0.27388772 -0.42355934 -0.49937278 0.2399802 -0.07013486 -0.458889 -0.13106729
17 -0.06180787 -0.6062139 -0.39321992 0.095878154 0.08788137 0.21929766 0.6126087 0.27160516 -0.38048917 -0.14705475 0.30483347 0.39744478 0.3493796 0.4042863 -0.32809415 0.004307558 0.4886267 -0.014456991 0.7176137 0.6094185 -0.22878961 0.1519601 -0.24975248 0.38175946 -0.09530336 0.13973303 0.49377128 -0.010862589 0.49830902 -0.044752818 0.21446206 -0.11406062 -0.07993349 0.0051831435 -0.34334925 0.11050999 0.461367 -0.17799132 -0.049371116 -0.095077686 -0.048103046 -0.25312606 -0.24240305 0.068675205 0.17932387 0.0652026 0.23771408 -0.69056916 0.058778163 -0.30083853 0.69673765 -0.20573753 0.086900175 -0.0366033 0.6948828 -0.20635071 0.16000755 0.037946116 0.24358928 -0.11057177 0.0073117986 -0.061195605 -0.6031343 -0.630819
66 -0.053449355 -0.3422835 -0.0184144 0.36669514 -0.23382273 -0.8291882 -0.13554223 -0.2777225 0.4300345 -0.2214075 -0.27157027 0.33917937 0.36310643 0.1197507 -0.24094203 -0.7323303 -0.19908024 -0.4005395 0.29417896 0.08360779 -0.09797889 0.44047347 0.33795196 -0.094002694 0.17907098 -0.29420462 0.14762266 0.37301803 -0.2120255 -0.34427145 -0.15850474 0.57858497 0.015189224 -0.0021615122 0.037146863 0.21466395 0.5652861 -0.2406426 0.118398935 -0.1955967 -0.16821001 0.18168335 0.13323432 0.4662718 -0.49617645 -0.32660428 -0.4036796 0.45712206 0.40399563 -0.12753534 -0.24559452 -0.15391132 -0.20449767 -0.35407153 0.24511719 -0.22115587 -0.21626322 -0.12221694 0.3011176 -0.09797067 -0.26062968 0.23177254 -0.4648043 -0.037014965
38 0.245051 0.08055729 0.13834679 -0.32424346 -0.09618425 0.13297677 0.64022744 -0.10053917 -0.29439574 -0.13691036 -0.015382529 0.49471167 0.7045593 0.31839427 -0.28415328 0.27135214 -0.11881766 -0.22810121 0.50573856 -0.3286971 -0.3906176 0.045153197 -0.03768167 0.5323951 0.007130032 -0.21989983 0.19624686 0.056704197 0.8103367 0.11536745 0.6189004 -0.39711618 -0.22722356 0.36280897 0.7904763 -0.15996 0.57137144 -0.38907418 0.19510671 0.2416771 -0.1906957 0.22991623 0.23201907 0.09501575 0.036215264 0.014614603 -0.14510408 -0.6611786 0.15133072 -0.35133636 0.008741806 -0.2056815 0.26096186 -0.13645925 -0.021296812 -0.10052557 0.36147654 0.17481492 -0.057199534 -0.53018385 -0.44602752 -0.0055591357 0.7532177 0.1830269
34 0.49648196 -0.014864278 0.14880145 0.027989894 0.19491772 0.35915056 -0.44934914 0.25344855 0.15189342 0.14616212 0.45143414 0.51778775 0.039731912 -0.06747305 -0.41209826 -0.22233602 -0.35408673 -0.12080379 0.4757192 -0.2570052 -0.316736 0.2620097 -0.40113726 -0.10991682 -0.0018475224 -0.047869083 -0.21649034 -0.5779568 0.1365717 -0.17375124 -0.17529804 0.43891186 0.059226412 0.16393873 0.051236544 -0.22284581 0.06855499 0.34736073 -0.42466232 0.19709955 0.20012316 0.738029 -0.31368807 0.64186156 0.11142444 0.10480416 -0.16882937 -0.5022519 0.39737692 0.36831117 0.3247716 0.20606688 -0.2503259 0.26151726 0.8344938 0.2228568 -0.04100319 0.5208086 -0.037092183 -0.3834229 -0.041285187 0.037320405 0.12781805 -0.022819735
24 -0.097851455 0.07306456 0.2274437 -0.13532792 -0.2626849 0.22376554 0.56307614 -0.078293025 0.2515559 0.1491168 -0.14435183 -0.109219186 0.000502294 -0.111269176 0.14841291 0.40687895 0.21438074 -0.22539687 -0.35753277 -0.15038352 0.19861846 -0.31017423 -0.22844967 -0.45331034 -0.095315784 -0.065750316 -0.13231112 0.4096867 0.078565694 -0.16437812 0.09656901 -0.16962984 0.054667927 0.28002763 -0.0025977986 0.31478798 0.3847542 0.2162423 -0.26402295 -0.31085578 -0.32792893 0.19230503 0.1738368 0.070913196 -0.3632918 -0.2085947 0.41648674 -0.09667598 -0.09861307 0.30228385 0.18458486 -0.16881867 0.1255545 -0.3729919 0.026237102 -0.14997338 0.21109472 0.18936469 0.40127853 0.15155591 0.15258579 -0.19835 -0.41887924 0.07361956
53 -0.0023730993 -0.5126869 0.25470415 -0.18109795 0.021694452 0.2324332 -0.10893638 0.2858551 -0.129565 0.11453555 0.33163062 -0.4463568 -0.105136916 -0.40952563 0.15439314 0.09422469 -0.14496082 -0.14621064 0.4138979 -0.4551981 0.041401878 -0.19042422 -0.07315028 -0.2140181 0.14979342 -0.06839546 0.032131772 0.086426035 -0.008921716 -0.20953818 -0.19287461 -0.19056416 0.09106908 0.103792466 -0.23213509 -0.0016270756 0.4069079 0.14596026 -0.43418056 -0.31449914 0.13229372 0.21385744 -0.07675691 0.73966914 0.5556459 -0.21137927 -0.3849804 -0.15726745 0.16899122 0.10255812 0.38391575 -0.56623745 0.19415525 -0.27255064 -0.11404647 -0.5693557 0.21550035 0.43337515 -0.26259172 0.09061035 0.19346806 -0.020097874 0.08793305 -0.037276857
64 -0.16981259 -0.5337462 0.043385662 0.25576735 -0.5810616 -0.5170919 0.693868 -0.16497299 0.3777092 0.2387806 0.27883488 -0.045813996 -0.028258074 0.33975497 -0.30630794 -0.15836754 0.29760772 -0.51897585 0.44037002 -0.061848987 -0.15908478 -0.3117088 0.0059887148 0.21043098 0.113735504 0.16775662 0.6621776 -0.26344198 -0.40449828 -0.14080215 0.34292546 -0.2802301 0.22985794 0.224386 0.34608442 0.07371267 0.06528367 -0.31873512 0.22948286 0.26154447 -0.6876239 0.07647046 -0.15888675 0.5555321 0.073706284 -0.23612297 0.5479334 -0.17465158 0.11105966 -0.08860351 0.2736323 -0.07113652 0.15634008 -0.086122066 0.29429242 -0.29507017 -0.008068328 -0.55553323 0.13022363 0.3467807 0.07968424 0.29773617 -0.7757194 0.29577664
51 -0.20708741 0.1579951 0.024261875 -0.21919972 -0.40503284 -0.13441758 0.3992839 0.054724738 0.029688792 -0.36024472 -0.060720686 -0.14100584 -0.23036604 0.36430055 0.10373095 -0.0591914 0.32608953 -0.5509342 -0.005246873 -0.29614955 -0.110613324 -0.068289235 -0.10158992 -0.4286906 0.121961296 -0.53127116 0.12906738 0.07851466 0.066370845 -0.41814744 0.3217619 -0.33354324 -0.10963634 0.37469047 0.5267794 -0.5503361 -0.16026106 -0.0075119105 -0.05058061 -0.33979866 -0.604209 0.15424508 0.5884214 0.7408614 0.30228975 -0.16341734 0.27846068 -0.25908569 0.33113518 0.002771277 0.20261444 0.14889097 -0.13425085 0.05076105 -0.220239 -0.6639706 -0.40228587 -0.16382484 0.5408806 -0.21849702 -0.31663722 0.21011412 -0.26116014 -0.05630793
81 0.38206872 0.09371566 -0.1543075 0.3559554 -0.24246557 0.3001263 -0.12193685 -0.29775077 0.24987003 -0.80982155 -0.08969778 -0.33281112 -0.032315128 0.3768952 -0.30811968 -0.13438272 -0.22743464 -0.274111 0.19628133 0.30782732 -0.101476915 0.050841648 -0.3505892 -0.098557845 0.16028124 0.039990567 0.10923085 0.12834233 -0.046272267 -0.29141572 -0.016580645 -0.058661476 0.6172864 0.35577545 0.6568919 0.21746486 0.14248256 -0.17042083 -0.24907567 0.2331854 -0.6323592 0.38374233 0.15620477 0.11966906 -0.17052485 0.012223849 -0.47498122 -0.17987496 0.16292585 0.5520143 -0.20917208 -0.45255023 0.5841622 0.01668391 -0.3011697 -0.11669891 0.20101498 -0.0537565 0.29331663 -0.055140562 -0.39733547 0.04545698 0.26721323 0.35888812
1 0.4011478 0.3629138 0.23322567 0.24891347 -0.019187976 0.28506213 -0.6881053 0.2539514 0.10573327 0.14591686 -0.36013475 0.23466946 0.22305305 -0.27314177 0.2492021 -0.20914802 0.48975748 -0.007038992 -1.0601436 -0.45523888 0.48474932 -0.032791995 0.20267037 -0.017932465 -0.20938005 -0.2334517 -0.62140703 -0.0018705914 -0.24969788 0.09503983 -0.3933711 0.41369462 0.7355249 -0.2000519 -0.019946145 -0.24564122 -0.07745093 0.24814962 0.0119974045 0.42787516 0.35077214 -0.0028962193 0.078927025 0.19285402 0.11044488 -0.16914015 -0.57345015 -0.35280836 0.6420895 -0.002531737 0.3653611 0.0072842804 0.066927895 -0.22090477 0.15252902 -0.414061 0.28716326 0.38211602 -0.054909714 -0.23951082 -0.6346533 0.02218454 -0.18834792 -0.32268846
99 -0.23796025 -0.12146307 -0.53738034 0.14890859 -0.11121132 -0.009165221 -0.12836634 -0.23861364 -0.07144615 0.11991838 -0.062603146 -0.2102906 -0.67465675 0.17070216 0.100961134 -0.28558198 -0.37504274 -0.65339774 0.1143908 -0.07759009 0.31531978 -0.027244024 0.19294575 0.32959107 -0.3063835 -0.13513404 -0.32866237 0.5162769 -0.15182959 0.17027219 0.051925287 -0.097778104 0.6389886 -0.25574303 -0.06993537 0.109957695 0.114235304 0.32339734 -0.22281818 -0.3482152 -0.17740634 0.005925205 0.38701302 0.9728661 0.053303763 0.019057103 -0.4251581 0.13049802 0.42994666 0.5002783 0.18909168 -0.6040725 -0.58103156 0.08486158 0.16177578 -0.32414952 -0.3029156 0.16437984 0.029616347 -0.36550334 -0.1741454 -0.097218774 -0.06690561 -0.2467157
54 0.5038272 -0.04775677 -0.1825102 0.1975189 0.44604194 -0.07343139 -0.40754187 -0.11782452 0.10373132 0.60110307 -0.25390974 0.2559817 0.4160725 -0.05765505 0.07425303 0.1354527 0.10093125 0.16643706 0.48110443 -0.042857867 -0.2743055 0.12319303 0.2840008 -0.084570676 0.3517169 0.14795172 -0.066618375 0.40345612 0.48900616 0.17669326 0.2487615 0.13367009 0.44646457 -0.091863036 0.4271297 -0.14881349 0.31087828 0.22995491 -0.3579627 0.051344473 -0.31680414 -0.14522177 -0.15844022 0.06442429 0.19857559 -0.07139707 -0.64484346 0.06147737 0.7011114 0.2125063 0.43728217 -0.31694016 0.029209517 0.016518975 0.5880409 0.1202344 0.08171775 0.42939994 0.027499262 0.3680927 -0.61267686 -0.0195646 -0.1788567 0.10236799
42 0.39790702 0.6936268 -0.8425075 0.27700603 -0.643867 0.6435696 -0.34326944 0.60194284 0.24247356 0.12973185 -0.111794315 -0.023253515 -0.16987248 0.3694076 0.23398878 -0.096691504 0.78218764 -0.37195376 -0.78019226 0.23360083 0.28562394 -0.059812002 -0.42968124 0.17745972 -0.56898177 0.1990228 -0.028462848 0.6868867 0.24824171 0.40720168 0.0028620318 -0.013526249 0.7285793 0.20652963 -0.08124102 0.46571568 -0.7309331 -0.121641204 -0.1541607 -0.3611219 0.1883903 -0.32395595 0.033354025 0.050104953 -0.18320204 -0.7003109 -0.05322651 -0.28743094 0.29300895 -0.2759802 0.22567293 0.056697764 -0.24764584 -0.026085816 0.08587495 -0.074391834 0.123012684 0.6488247 -0.21711744 0.09689095 -0.2513633 0.025135871 -0.06688551 0.14336519
30 -0.5998047 0.44575775 0.025825817 0.08090515 -0.24076676 -0.3894191 0.22424547 -0.20674455 0.13161647 0.15827636 0.30842796 0.34896582 0.12516332 -0.21956123 0.035370383 0.028434075 -0.06275804 -0.29516774 -0.33694863 -0.53853506 0.4322659 -0.46298972 -0.86343443 -0.015659537 0.08247649 0.0736117 0.120594576 -0.3756026 0.30638364 -0.11868061 0.03223937 -0.27900308 0.06709489 -0.27154797 0.5673368 -0.049293976 0.3867071 0.02320628 0.20316656 -0.11616363 0.13609177 -0.21406166 -0.08861477 -0.01740213 -0.018631184 0.2157552 -0.18526424 -0.30353364 0.10495449 -0.3791798 0.5239334 0.18078128 0.3942717 -0.31382886 -0.06429159 -0.38323495 0.53903514 -0.041588277 0.11746991 0.2738567 0.21303587 -0.32855257 -0.3804448 0.2011661
85 -0.40648234 -0.37165093 -0.14187321 -0.19330662 0.019486146 0.026091747 -0.28951553 0.3402395 0.114170045 -0.5826572 -0.6684046 -0.11381101 -0.45608962 0.57902694 0.1538549 -0.2577689 0.19025628 -0.60335326 -0.020978782 -0.17418033 -0.06418366 0.23637736 0.13716432 0.12147074 -0.08982856 -0.16850244 -0.26547256 0.23226577 -0.026906202 -0.029717471 -0.21541856 0.29199186 0.08201742 0.049958557 -0.08643159 0.53029245 0.37338066 0.47857928 -0.88702977 -0.537225 -0.22295162 0.22571908 0.018599434 -0.071798824 -0.1409176 -0.30912396 -0.109595075 0.21607701 0.2538814 0.30589318 0.48549744 -0.109264284 0.32272995 -0.4576503 -0.017494787 -0.15299484 0.110053055 0.3585513 0.119286716 -0.059055723 -0.2912744 0.34560367 -0.51914895 -0.101774275
37 0.52836186 0.16578893 0.3792286 0.054553222 0.03696394 0.18351416 -0.30221114 0.3093374 0.6658149 0.52602994 -0.07003748 0.056003667 0.06554959 0.013455922 -0.4238654 -0.014463691 0.30314982 0.09619425 0.0033130522 -0.047694135 0.25439134 -0.19851977 0.24780507 -0.21418765 0.19298993 -0.35694206 -0.3721311 0.16859356 0.648457 0.036187287 0.3814335 0.48878485 -0.0031086598 0.31195584 0.43858877 -0.32393974 0.037575115 0.44466054 -0.31484765 0.50055236 0.16956069 0.4905173 -0.11066972 0.0136590395 -0.5312742 -0.21379608 0.45386076 -0.18486598 0.6462081 0.004282463 0.14394271 -0.1862817 -0.14632659 0.025479391 -0.07653682 0.4337831 -0.00480202 0.7678457 0.18854538 -0.21235916 -0.1906363 -0.5825271 0.17772989 0.23860379
28 -0.16998214 -0.53944397 0.48761088 0.37226278 0.14542717 0.16800967 0.64172405 0.0561144 -0.058335785 0.078742415 0.35859185 -0.07530375 -0.08584074 -0.25162092 -0.11234695 -0.12855402 0.060199313 0.012429468 0.40907526 0.23340413 0.24202769 -0.5558677 0.18979713 -0.31679538 0.16171578 -0.15534997 -0.3718046 0.004129054 0.37247372 0.38867703 -0.12048554 -0.2098022 0.38143587 -0.57361513 -0.102482796 -0.14083317 0.41566455 0.65753627 0.06874314 0.21997711 -0.006776594 0.1068947 -0.08497409 0.3738787 -0.29902342 0.05528717 0.3142515 -0.33661222 0.10260993 0.15559953 0.60150725 -0.041150168 0.027072817 0.099042945 -0.33825415 -0.18230566 -0.122750394 -0.14999591 0.23770273 -0.08927379 0.64283955 -0.42340887 -0.26834613 0.016922753
67 0.36525384 -0.3376204 0.24780458 -0.6017306 0.097216055 0.10814189 0.6444888 0.35277537 -0.40906578 0.19952366 -0.20329097 0.5486083 0.52964985 0.2893647 0.4885052 0.04863693 0.5752843 -0.2742021 0.51306933 -0.39545584 -0.31837866 0.4078586 0.46709684 -0.07866646 0.3397794 -0.48642135 -0.5176928 0.06354892 0.22037171 0.24068642 -0.0021882239 -0.45092922 0.19940306 -0.37542245 0.33328366 -0.28251106 0.5017859 0.3819489 -0.21875723 0.11635965 0.047979634 -0.17231186 0.11321811 0.35453504 -0.002421471 -0.4272026 -0.2315227 0.02587996 0.275502 -0.17202298 0.13189405 -0.07566065 0.09674072 -0.21042877 0.04101385 0.28885382 -0.024718551 0.14662346 -0.26647705 -0.65395206 -0.030426221 0.58848983 0.24296369 -0.2659382
7 0.39003512 -0.10575046 -0.1005876 -0.4627357 -0.089520186 -0.20749973 -0.34921157 0.1249755 -0.009824091 -0.756584 -0.28865236 0.35605642 -0.07410538 0.062857844 0.12931909 -0.2184395 -0.2738953 -0.014455913 0.09270317 -0.049536567 0.5415535 0.83803093 0.052917782 0.40028122 0.32123536 0.052987456 0.45301348 -0.36976185 -0.3436867 -0.0020928173 -0.12507474 0.13800901 0.32394388 0.2900042 -0.3202985 -0.3660667 0.095928356 -0.055166993 -0.15332308 -0.06394124 0.38323912 -0.01043505 -0.20714642 0.3403302 -0.09589415 0.320035 -0.31635302 -0.2658413 0.8444632 0.23539242 0.4116898 -0.37404805 -0.09762112 -0.5154006 -0.40235093 -0.4804174 0.145821 0.48018143 0.42228803 -0.3771671 -0.17050377 0.32769942 -0.31697777 -0.08487805
92 -0.46650898 0.36085072 -0.92426866 0.105572745 -0.14634055 0.0778062 -0.054724663 0.5456826 -0.00028016686 -0.3737591 -0.2294037 0.09603343 0.22374792 0.28440017 0.1590557 -0.1334935 0.49332744 -0.40276203 -0.024181023 -0.6002764 0.14637713 -0.009834648 -0.33776194 -0.05900941 -0.36433378 0.43355393 0.37433383 0.31632137 0.20584087 0.2699407 -0.08476316 -0.071733505 0.4607917 0.19635807 0.131851 0.5149178 -0.2706172 -0.11560124 0.05813874 -0.50813144 -0.5078844 -0.037294444 -0.050176352 -0.07667853 0.5075646 -0.052640043 -0.24260335 -0.20227526 0.12393034 -0.4785755 0.70505095 0.4461999 0.25376233 0.14321868 0.1445503 0.005271874 -0.06698941 0.14427151 0.17619291 0.17355253 -0.4961173 0.51281446 -0.31994465 0.009402902
15 0.16377378 -0.19399923 0.2173505 -0.23559515 -0.10766963 0.25947255 0.15210648 -0.07646631 -0.049012206 0.39461374 0.08771271 -0.35218102 0.45838964 -0.21115568 -0.17084189 0.66526634 0.37258142 0.022228202 0.29104668 -0.41130143 0.32849488 -0.34248516 0.5325276 -0.53649086 -0.5418682 0.353963 0.47579497 0.25266787 0.5382442 0.1801497 -0.18840551 -0.15672942 0.96211433 -0.21417747 0.2141311 0.72732973 0.44543207 0.34378192 0.1078678 -0.27116102 -0.49683413 0.29090706 0.092349865 0.009295103 -0.03978411 0.07883628 -0.047325566 0.115703195 -0.42638573 0.0063122925 0.8162227 -0.09666052 0.50676626 0.03333609 -0.16701059 0.08407197 0.29443446 0.37020048 -0.06187216 0.4386424 0.28992105 0.31361347 0.29691595 0.31012958
68 0.23494151 -0.033409286 -0.036736347 0.58727413 0.036912575 0.32681563 -0.13540229 0.5140889 -0.104936294 0.20873031 -0.22433658 0.41345015 -0.031005627 0.074919835 -0.069349825 -0.40926293 -0.19275723 -0.13450144 0.23493348 -0.017732223 -0.3249614 0.14087069 0.2184245 0.19389468 -0.43140903 0.11764322 -0.30752766 -0.41948023 -0.19339336 0.16962454 -0.2822839 0.6663772 0.63942665 -0.1243902 -0.3886967 0.33544108 -0.036172442 0.4984319 -0.13081585 0.52983224 0.046948817 0.114968665 -0.22465648 0.51653004 -0.041035283 0.110321194 -0.041236654 -0.5845312 -0.018558266 0.23800993 0.37488687 0.04679628 0.052252315 0.2812704 0.6239047 0.17158741 -0.15295559 0.34231028 -0.674666 -0.51058257 -0.003875332 0.53673446 0.049107596 -0.033617232
8 -0.0982867 -0.40543264 0.17257608 0.47332144 -0.12851413 0.09695981 -0.24431975 -0.21914369 0.6681377 -0.62073153 -0.057282384 -0.15642528 0.14142606 0.35753456 -0.12062161 -0.34495267 0.3039061 0.07298754 0.86882377 0.6855282 0.42229125 0.073934965 0.26974392 -0.4937887 0.24074446 -0.0317825 0.30146536 0.46244267 0.30987802 -0.34321314 -0.16270775 0.6019215 0.2818211 0.20671201 -0.044766553 0.035604794 -0.038261756 -0.030272616 0.18924612 -0.5819874 -0.08862562 0.08185131 0.35896108 0.054491647 -0.69437 0.26695052 0.3571171 0.020716952 -0.07851603 0.5027358 -0.44010773 -0.69518757 0.31265718 -0.5876008 -0.4668751 0.06299498 0.6338602 0.12575936 0.32023343 0.0441736 0.662671 -0.1402135 -0.24178647 0.28257897
0 -0.074564666 0.068676256 0.12435878 0.12730323 -0.12049074 0.08521167 -0.7993134 0.18387191 0.35761008 -0.45944852 0.22209847 0.07253839 0.12715878 -0.044281848 0.079385914 -0.22835685 0.35454705 -0.37915295 0.69741505 -0.4650734 0.15893717 -0.26799795 -0.48022816 -0.30199564 0.20266034 0.42279556 -0.18304004 0.45688167 0.04993396 -0.15419091 -0.12235291 0.2956189 0.20952159 -0.09511923 0.299989 0.13571237 -0.05449697 -0.36233383 -0.5719913 -0.47482684 -0.55760556 0.55978847 -0.051322874 -0.13170072 0.44013414 -0.5269605 -0.5937944 0.18993255 0.766236 -0.1310525 0.04085949 0.039078698 0.14629067 -0.26397282 -0.13358732 0.55029 0.2987666 0.04608896 0.35640165 0.37889057 -0.1606244 -0.5820101 -0.07143397 0.0931773
61 -0.24995321 0.20923358 0.042665284 0.27200657 0.4286709 -0.25501135 0.109633155 0.22907007 -0.13837697 -0.13359503 -0.16860335 0.018974898 0.06751427 -0.10339143 -0.051067248 0.09992956 -0.16733608 0.039089236 -0.049481414 -0.24095197 -0.015923088 0.35856774 0.11584024 -0.31248516 0.10570575 -0.03656386 0.07276212 0.50951666 -0.5244253 -0.3343085 -0.19486372 -0.23858307 -0.34074095 0.5445567 -0.31334996 -0.004617107 0.7129573 0.26905018 0.067597695 0.16488259 -0.21782471 0.12079529 0.37646335 0.0140714515 -0.1466867 -0.012083947 -0.30655387 -0.30593136 -0.11976537 0.59433186 0.5248502 -0.68584144 0.40244797 -0.36523524 -0.13632432 -0.19100145 0.113862745 0.09467935 0.0902637 -0.044124633 -0.3911659 0.71753347 -0.6224535 0.189697
25 0.40543383 -0.40539598 0.5835482 0.13783821 -0.16029635 -0.574318 0.06801986 -0.45261872 0.22749324 0.584163 0.14021274 0.000578021 0.35444254 0.24092996 0.08714618 -0.058576398 0.49731496 0.3437664 -0.1656772 0.3404811 0.23015818 0.014601911 0.29969472 -0.35649478 -0.038750537 0.5040929 0.20497976 0.51867205 -0.111683995 -0.5856655 0.34823504 0.07098312 0.2292748 -0.36618808 0.024570728 0.12895222 0.69388634 -0.29809457 -0.29140878 -0.3398453 0.0697284 0.2337829 0.10268387 0.3122027 -0.12995946 0.31152856 -0.15931977 -0.0054182983 -0.019574035 -0.27698493 0.32144016 -0.30392292 -0.17696646 -0.87288946 0.2529104 -0.29639974 0.0098887915 0.5486025 -0.2830747 0.12669228 0.008833627 0.123764366 -0.5777339 -0.014034819
18 -0.24454036 0.19217478 -0.62715626 0.5250925 0.20747198 -0.2864234 -0.28369612 0.5224559 -0.20278837 -0.13230342 -0.16179727 0.92649245 0.05660506 -0.54524857 0.4741707 -0.8021235 0.17035516 0.0045686914 -0.3485082 -0.28507096 0.3633697 0.020560173 -0.28245774 -0.12517618 0.03249022 -0.15231858 -0.20105341 0.6865021 0.18858252 0.22468485 -0.1623905 0.3601758 -0.35457334 -0.21848105 0.09479926 -0.48495373 0.1231981 0.082396634 -0.3431045 -0.141541 0.47358453 0.022381704 -0.011650016 -0.36136657 0.3136296 0.040645972 -0.38663208 -0.31250378 0.63915604 -0.27955624 0.3836156 -0.35916737 0.10365016 -0.3662049 0.08964073 -0.41148227 0.28968677 0.22801125 0.10433408 0.04020818 -0.33954135 0.073960595 -0.13647595 -0.0018503215
47 -0.21865669 0.09157398 0.010733793 -0.032187916 -0.18616523 0.11102303 -0.063634865 -0.16117568 -0.103100784 -0.20289959 0.5001009 -0.22470386 0.14695929 -0.08999394 -0.088520095 0.03741849 -0.17154953 -0.617765 0.44231194 0.19337803 0.17534241 -0.3777323 -0.104915224 0.113462485 -0.438483 0.28768754 0.038567208 0.09868542 -0.0007869645 0.13116531 -0.6731497 -0.12925158 0.17038463 -0.2146459 -0.3660124 0.19920513 0.14745772 0.51760805 0.057252187 -0.40322834 0.09048098 0.1795509 0.23878255 1.2983824 -0.31816855 -0.08008516 -0.6507744 -0.2703733 -0.034909975 0.2900201 0.23992732 0.024169952 -0.3022255 -0.1845655 -0.108866826 -0.058434714 0.07631832 -0.20319588 -0.21042831 0.025879765 0.83853096 -0.30930936 -0.010191255 0.20887499
82 0.64058423 -0.2602593 -0.10611697 -0.51409847 -0.51196396 0.1719863 0.24420936 -0.062261727 0.0074883294 0.18241286 0.47533113 0.5618562 0.17755505 0.0035032989 0.12136939 0.34425616 -0.14054637 -0.1874942 -0.3122285 -0.13952723 0.3215103 -0.0061643403 -0.06330685 -0.103909366 -0.088459074 0.4847449 0.30828974 0.011057096 0.78141284 -0.030097988 0.24206424 -0.020454422 0.15808454 0.63789904 0.4548917 -0.17452848 -0.1484936 -0.00484727 0.13613445 -0.60871905 0.3240911 -0.040711757 -0.081615165 0.41613728 -0.4033688 0.5145768 0.63899547 -0.17869201 0.08885658 0.08749185 -0.1296161 -0.7008674 0.14240156 0.010806959 0.43447262 0.10631154 0.68947744 0.41546658 -0.0636153 -0.06816897 0.45809957 -0.16247411 0.05843667 0.017553007
3 0.06620088 -0.41632068 0.032070618 -0.09930836 0.070259795 -0.19093375 0.42372534 0.54268795 0.19757523 0.005656781 0.2465104 0.7215958 0.07622714 0.6663688 0.12252035 -0.12304858 0.56278014 0.31124777 0.22396103 0.3328931 -0.32219666 -0.048192896 -0.24223675 -0.12662667 0.7306037 -0.23795657 -0.3228231 -0.0056205518 0.4771254 0.23351698 0.3192957 -0.13881636 -0.16620532 0.17921232 0.24592632 -0.4368674 0.23436299 0.47089812 -0.3819782 -0.10953609 0.3052902 -0.2725324 -0.19970702 -0.2411663 -0.7635512 -0.10541376 0.40751848 -0.32830957 0.25956184 0.17611876 0.32810196 -0.07830856 0.48252958 -0.33567008 0.3117685 0.5750397 -0.060461525 0.104377836 -0.26858965 0.1678875 -0.091746345 0.37582743 -0.5998694 0.5231611
12 0.13787428 0.18436436 -0.19075252 -0.49922147 0.18756533 0.3764528 0.049174987 0.07217316 -0.27456975 0.29845074 -0.05066732 0.34497452 -0.45587704 -0.32424906 -0.11085341 0.30002445 -0.57618105 -0.4774828 0.1884744 -0.35197562 -0.16522557 0.3384195 -0.110642955 -0.25168413 -0.37175894 0.14317712 0.045663845 -0.17159076 0.0054041017 0.07325273 -0.3018921 0.12913123 0.40021956 -0.2034177 0.0993542 0.636142 0.4072155 0.41340706 -0.52393764 -0.15009561 -0.48977032 0.49442598 -0.08041591 0.78121275 0.30333173 0.047342207 -0.5109061 -0.061295953 -0.14534493 0.61844796 0.69237876 -0.00035895506 -0.17734265 0.11121898 0.4362156 -0.4780633 -0.16016684 0.2000007 0.1565939 -0.09818444 0.061474252 0.29901552 0.47045568 0.69821465
90 0.5154277 0.2077399 0.9759408 -0.04557636 -0.34730154 0.2914014 0.16935034 -0.3341874 0.22037707 0.089324825 0.03720467 0.37334827 0.4214553 -0.1568205 -0.22183445 0.3118469 -0.07233938 0.026316643 -0.04050117 -0.053298462 0.09474634 -0.31506738 -0.055318743 0.4655384 -0.08526975 0.026627848 -0.4662756 -0.20552135 -0.18183312 0.21038972 -0.18680812 0.3674804 0.52627254 0.0133802295 0.17012553 0.21918778 0.34835276 0.5429526 -0.01581723 0.37404042 -0.090950355 0.2017129 0.0136402985 0.1561889 -0.41675547 0.13142033 -0.06910887 -0.15580302 0.51705897 0.32363585 0.29475763 0.05874558 0.5006454 0.040921956 0.1906842 0.5902824 0.52046156 -0.13286112 0.35020763 -0.26582792 0.28517303 -0.7679646 -0.3147339 -0.18068095
97 -0.60859716 -0.31218213 -0.018424576 -0.32667565 -0.21847457 -0.15953225 -0.0026095759 0.25759733 -0.19513218 0.117093004 0.38978362 1.3883462 -0.24682976 0.15427868 -0.039219595 -0.38238475 0.36379805 0.091195285 0.8315786 -0.23731615 -0.11295703 0.4334226 -0.05389786 0.23020698 -0.012940944 -0.02719272 0.38951275 -0.06772092 0.85122246 0.15142213 -0.10315598 0.29596478 -0.19947964 -0.12630022 0.4592448 -0.028114488 0.3823633 0.22858793 -0.0067548766 -0.15244167 0.41383067 0.20746312 0.0554234 -0.4789567 -0.5031898 0.11926823 0.11883072 -0.16357878 -0.23401414 -0.113991335 0.68699086 0.088103265 0.52577853 -0.7095876 -0.061626654 0.03432397 0.6087924 -0.113412045 0.054802246 0.30048823 0.3647434 0.22049798 0.23726271 0.857331
33 0.21301587 -0.4107668 -0.07775254 0.18832617 0.0154285375 0.44698986 0.23658642 0.5302046 -0.3539295 -0.90663505 0.3494329 -0.11209722 0.516439 0.5236938 0.38324863 -0.0092177205 0.53202885 -0.09977572 0.030414624 0.14173308 -0.47994974 -0.13400121 -0.3831016 -0.3640492 0.3667978 -0.035499573 -0.24078868 -0.16318879 0.30818585 -0.6229115 0.057731073 -0.67192435 -0.1782231 0.06773219 0.34998244 -0.39640725 0.043001533 0.35223746 -0.53598994 -0.534645 0.017770901 -0.11908312 0.3465913 0.57032317 -0.06028736 -0.22627354 -0.05045395 -0.44858047 0.069119 -0.093857475 -0.03836924 0.060226243 0.40612835 0.24979107 0.32774445 0.32403478 0.22456509 0.49647054 -0.48296005 -0.257154 -0.002613774 0.4679945 -0.22481102 -0.72824293
59 -0.02079398 0.50140274 -0.035472967 -0.024717463 0.32481322 0.06834817 0.109970436 0.34970805 0.138556 0.20394565 -0.3591443 0.39027953 0.40129074 0.011501955 -0.27503058 -0.075514995 -0.099684365 -0.65045 -0.33846208 -0.10583378 0.21697347 0.35224995 -0.36875805 -0.34270826 -0.005248758 -0.6303348 0.046028353 0.26756614 -0.10354093 0.15086639 -0.38070652 0.43089983 0.19119899 -0.0012578717 0.22080839 0.40235338 0.7171143 0.04752551 0.16378506 0.37960997 -0.06385864 -0.2875499 -0.09979491 -0.024809059 -0.54562557 -0.22655174 -0.05552432 0.17719741 -0.07666062 0.011935264 0.7061238 -0.27039942 -0.17648569 0.07042104 0.39937255 0.038821593 -0.36136207 -0.2534082 0.8845154 -0.57180643 -0.10267238 0.22825295 -0.10483629 0.048220247
94 -0.48012283 0.4805994 -0.07109595 0.6236566 -0.25127697 0.20004395 0.33572417 0.072218105 0.10797167 -0.011067722 -0.48598838 -0.57813686 0.27603188 -0.13759217 0.15055083 0.07396096 -0.066001 0.22571556 0.3997096 -0.25925314 0.12811607 -0.20531943 0.22750339 -0.20493671 -0.26543435 0.11772161 -0.2001904 0.36867574 -0.11215064 -0.049286086 0.3580847 -0.3084999 0.668598 0.16831143 -0.115437135 -0.3176046 0.23604214 -0.052178018 0.43290004 0.8204926 -0.54581225 -0.26413545 0.10864867 0.78892267 -0.015618737 -0.3928372 -0.5970014 -0.6410121 -0.24951902 0.29099822 -0.11266606 -0.28720868 0.28354168 0.42418906 -0.22546217 0.17236881 -0.57642573 -0.049325682 -0.7016151 -0.11805277 -0.10636124 0.27107477 0.4845065 0.73682886
95 -0.42950127 -0.037095718 0.21915832 0.050483234 -0.23719595 -0.28972825 0.14732327 0.47077686 0.14566301 0.07314615 0.068545364 0.047926657 0.30495736 -0.19683278 0.11418001 -0.38848832 0.12998311 0.07826372 0.48206994 -0.20891796 0.4479871 -0.21045507 -0.14266263 -0.73280513 -0.059619315 0.68898445 0.079903685 -0.07912498 0.56590545 -0.13048886 -0.081607364 0.26317614 -0.14772686 -0.012065953 -0.6166553 0.036242574 0.36994135 -0.06274417 -0.0053967373 0.14846605 0.049013242 0.12167364 -0.78454804 0.12999015 -0.0315284 -0.111249804 0.4494723 -0.22761075 0.25520042 -0.5393005 0.2870082 0.21425864 0.076843254 0.07614589 -0.19005568 -0.14061993 -0.7049527 0.45027652 -0.32178494 0.13858727 0.5050416 -0.539946 -0.29113334 0.29708079
44 0.053589813 -0.28132558 0.43708935 0.25864765 -0.1528581 -0.3411938 0.24756725 -0.033603728 -0.37304324 -0.69515425 -0.32823128 0.5195891 -0.10649809 0.106340125 0.10212504 -0.10977231 0.10258542 0.17656253 0.6326641 -0.28608483 0.24240243 0.10861723 0.4785097 0.43562198 0.5780875 -0.12893148 -0.12049555 -0.118044555 -0.6567748 0.13086036 -0.1545931 -0.08942694 0.2140354 -0.052383043 0.24544753 -0.4905512 0.32793558 0.95499814 -0.13859819 0.22081271 -0.14518054 0.26827663 0.2093001 -0.33047765 -0.26156718 0.24057145 0.010565567 -0.32529074 0.32021394 0.60694903 0.46858928 -0.33143094 0.67411757 -0.2597955 -0.5318502 0.37064135 0.12300062 -0.032310393 0.13169731 -0.19036563 -0.19218554 0.4621589 -0.31985083 0.16293629
21 -0.28484255 0.030803937 0.5113825 -0.0040825773 -0.15974578 0.0077058584 -0.14934878 -0.2738091 0.20413339 0.035530392 -0.034009065 -0.06375253 -0.2375832 0.5498063 0.009684951 0.10882837 0.5496669 -0.10671465 0.082630046 -0.35593146 0.40219915 -0.13549471 -0.063339315 0.39009827 0.35265192 0.16436572 -0.16767399 0.43569565 -0.6685237 -0.27697283 0.16127792 -0.52618665 0.34100232 0.13684927 0.00492793 -0.26351294 0.12392202 0.1424289 0.06605596 0.02477771 -0.051811107 0.19242719 0.14531577 -0.002177427 -0.032778207 -0.0037566156 -0.3157604 0.01829576 0.45786688 0.009438224 0.6837109 -0.38877988 0.36312985 -0.7099838 -0.44888827 0.38432917 0.6011119 -0.09537148 0.10889698 0.10653946 -0.14045207 -0.095204465 -0.7017852 -0.045915507
35 -0.24727204 0.17167583 -0.09925381 -0.03075845 -0.7329167 0.083458945 0.26471305 0.13165411 0.22156268 -0.29287758 -0.019711388 0.21174316 -0.067204766 0.17071913 0.36264926 0.07983079 0.27624416 -0.36456537 0.6917203 -0.63714546 0.14810325 -0.25425872 0.03948141 0.3146417 0.14702728 0.10768889 0.18408756 -0.5792018 0.3863165 0.5882484 0.7029906 -0.13372493 0.8262335 -0.19630949 0.7935521 -0.2663954 -0.49167827 -0.4545154 0.2548544 -0.20255126 -0.38065636 -0.4129915 -0.23612374 0.63304436 0.24191304 -0.15368405 -0.07469224 -0.51883763 0.113982774 -0.52433145 0.41234967 0.5186111 -0.4424163 -0.24374464 -0.063947745 0.09838472 -0.214386 -0.055703867 -0.057288192 0.059110075 -0.3195554 0.018407544 0.08198775 0.21958046
29 -0.010000056 -0.10137965 -0.5069275 0.37829044 -0.36242458 -0.36626312 0.22868958 0.42320222 0.36142218 -0.22899243 0.34009933 -0.15664896 -0.07487951 0.3105177 -0.24257572 -0.581111 0.11212155 -0.66812545 0.535772 -0.086036645 -0.38521835 -0.27251613 -0.093089834 -0.0024928239 -0.20181252 0.3358046 -0.098311715 -0.0067079216 0.59293044 0.52395904 -0.2415811 0.26929188 0.4551454 0.048568938 0.28883436 0.44574893 -0.20247854 0.007168225 -0.15400296 0.111882254 -0.35507002 0.05624704 -0.19370392 0.24142411 0.042425595 -0.74311 0.30878305 -0.3420665 0.59240025 -0.49769568 -0.15173355 0.5046594 -0.2616745 0.26853862 -0.22992341 -0.1506189 -0.23119673 0.2419713 -0.17419073 0.42022997 0.11610595 -0.17882316 -0.24874857 0.17984623
84 0.3618115 -0.06986289 0.20777854 0.52315664 -0.39147678 -0.0777351 -0.40776855 -0.2552033 0.27831662 -0.41677475 0.12806776 0.44048962 0.2683538 0.122643426 -0.35454658 -0.4539043 0.46058503 0.29383895 1.1703463 0.4843366 -0.19987516 0.46906018 0.27624595 -0.6573973 -0.04818385 -0.16414604 0.004184211 0.20343067 0.52070725 -0.42921162 -0.23233731 0.31688127 0.47454378 -0.025323145 0.050978452 -0.14631529 -0.39316422 0.1469798 0.37726235 -0.44353607 -0.284316 0.24144015 0.618093 0.14558306 -0.51867974 0.029313171 0.11555936 0.01117277 0.24463566 0.4806963 -0.29014918 0.16388993 0.19673294 0.29705113 0.22200596 0.10107199 0.4692285 0.051436365 -0.03761118 0.0037113798 0.39614728 0.30403638 -0.07794665 -0.12153467
13 -0.27672598 0.26431727 -0.026838053 0.033834253 -0.6950143 0.21142969 -0.2369038 -0.087804 -0.10689955 0.20327792 0.4000244 1.0138171 -0.45041898 -0.29322082 -0.5568977 -0.04599401 -0.062103607 0.06767844 -0.65669644 -0.11087721 0.41035774 0.0076589794 -0.11418689 0.024197677 -0.39595595 0.47651026 -0.10691458 0.0243226 0.7891744 -0.46853706 0.72939515 -0.57542264 0.14409396 0.17512016 0.2947176 -0.25760353 -0.62352985 -0.41127047 0.6360208 -0.20385294 -0.27270845 0.24684203 0.55036175 0.14629716 -0.32749498 0.4382423 0.50373584 -0.3924894 0.29165524 0.051487472 0.1556713 -0.060783308 0.09606283 0.652912 0.16075675 -0.59236294 0.5108041 0.4605429 -0.0875593 -0.098990895 0.14005099 -0.5775847 0.3125954 0.2263609
26 0.09906469 -0.29286146 0.0019781396 0.5531105 -0.41527954 0.16704108 0.070229135 0.47553748 0.0765604 0.074339 -0.41763407 0.02540917 0.338486 -0.3145874 0.029221898 0.43250814 0.7641745 0.372156 0.21290371 -0.16765358 0.27385885 -0.29217264 0.4395836 0.4485256 0.089284934 -0.29752827 0.09420534 0.4519565 0.035802606 0.2659867 0.73972225 -0.34565583 0.09123997 0.5104305 -0.15581739 -0.47956392 -0.09563043 0.027336195 0.21175186 -0.03392497 -0.29576123 -0.3068059 0.07552971 -0.07559872 0.056707077 -0.4586881 0.28533515 -0.47575855 0.24898328 -0.22083494 0.741381 -0.4372412 0.30281207 0.1747307 0.24817772 0.039803848 0.28095585 0.21883184 -0.011356059 0.3949912 -0.55249965 0.012573834 -0.30683926 -0.30895776
6 0.40190807 0.100420505 -0.30021417 0.5105349 0.18499586 0.09291392 -0.2758704 0.012323957 -0.390548 0.38371533 -0.8899775 0.4037412 0.10744776 -0.062294357 0.27309132 -0.44909143 0.54991496 -0.18338093 0.07245988 0.90577394 0.16117133 0.23466516 -0.23823163 -0.35934967 0.07303225 0.45132622 0.18732074 0.6643257 0.13681969 -0.102001935 0.015815994 0.12962672 0.28172794 -0.55600965 -0.3391801 0.4126562 0.013421932 0.14972982 -0.29268107 0.07456375 -0.5637646 -0.74473107 -0.3708222 -0.26955688 -0.12083007 -0.054958533 -0.2281907 0.20241249 0.52126545 -0.038953975 0.58010405 -0.56820244 -0.2184355 -0.108666144 0.14355934 -0.17562298 -0.1803577 0.066196255 0.3902288 0.17558743 0.13342655 -0.24704055 -0.67491573 -0.13039088
2 0.49081624 -0.36667475 0.87861514 -0.10028102 -0.27800524 0.41003308 0.46738178 -0.39553943 0.35654846 0.3450872 0.54518557 -0.39783227 0.19869462 0.0047858814 -0.24290228 0.17992626 0.12954733 -0.05296979 0.4633409 -0.0896571 -0.070975155 -0.12773062 0.3948901 -0.34763828 0.29116344 0.16890949 -0.103256725 -0.25467938 0.21810152 -0.4243475 0.46419266 -0.82054 0.15475594 0.12734537 0.25339776 0.15619981 0.093053386 -0.23187988 0.23128134 -0.11059834 -0.34759116 0.41148293 0.20921463 0.42316413 0.52926123 0.2769333 0.41503245 -0.4400376 -0.12655494 -0.520204 0.2669371 -0.32246256 0.011902984 -0.22547936 -0.6562103 -0.6559108 0.4160991 0.9380468 0.07028365 0.18937667 0.11908851 -0.39162827 -0.1439985 -0.47949558
74 1.1767064 0.039190456 0.51612914 0.080948204 -0.59954834 0.110278204 -0.20996152 0.2730262 0.1578761 -0.3104036 -0.2576821 0.13553736 0.44495428 -0.29905292 -0.025046399 0.06245488 -0.30700198 0.1575148 -0.0776829 0.45653307 -0.1792565 -0.28139117 -0.13923916 0.53147715 0.2473161 0.082058474 -0.40417504 0.43800843 -0.2462105 0.23044673 -0.06663753 0.18658926 0.20607187 0.61927855 -0.28172737 0.024176167 -0.28863427 0.019817255 -0.32342327 -0.13649786 0.036968086 0.11001248 -0.040386207 0.5906487 -0.19028108 -0.23206347 -0.38651037 -0.2891763 0.9776734 0.03226873 -0.12624249 -0.42957315 0.23155878 0.28905234 0.091824464 0.049533073 -0.10944976 0.32239035 -0.15748544 -0.041214015 -0.28763917 -0.71744126 -0.066740386 -0.16760676
80 0.6089238 -0.3253439 0.40901828 -0.7129461 -0.04500252 0.4337597 -0.21346672 0.12437286 0.23020558 -0.29004905 0.0059234845 0.2783415 0.4089623 -0.1071817 -0.1334375 0.24326557 0.6317298 -0.13661875 -0.5739675 -0.079949565 0.31446078 -0.004870576 -0.27391776 -0.2883411 -0.02938358 -0.047871746 0.07780379 0.06183918 0.2111751 -0.3328818 0.15881838 -0.01866909 -0.17430726 0.5589224 -0.14963853 -0.046229962 0.04590394 -0.15597503 -0.30485776 -0.4812869 0.09016135 0.22678977 -0.07465134 0.060012545 -0.2619112 0.091429725 0.40393552 0.08397715 0.71015006 -0.101368755 0.42610145 -0.3578519 0.25692496 -0.39131895 0.21725811 -0.14354652 0.785711 0.47868276 0.5628924 0.049084857 0.18364058 -0.42213878 -0.46874142 -0.75804055
9 -0.17357785 -0.0054517575 -0.11366335 0.4263311 -0.2729465 0.14321549 0.10685666 -0.057106253 0.32780954 0.34150445 0.036272634 0.22536099 -0.2644745 -0.20092504 -0.13463372 -0.06317833 -0.35430294 -0.19614188 0.6889259 0.16544619 0.10899097 -0.23352578 -0.1606607 0.07540114 -0.21543425 0.27236938 0.052269507 0.28715882 -0.1095932 0.13667051 0.68344295 0.26987922 0.7854841 -0.08188406 -0.1194252 0.23951726 0.19690382 -0.563337 0.0035679543 0.06814629 -0.68326545 0.017687019 -0.29193404 0.3779071 -0.098524004 -0.09001533 0.06076763 -0.10644936 0.16429164 0.26758662 0.2007032 -0.4679392 -0.13377665 0.3728483 0.05586622 0.37742165 -0.48793292 0.033160865 0.3568759 0.3818005 0.2298733 -0.5857291 0.28906804 0.6022466
71 -0.16869405 -0.017725458 0.012062127 0.029082108 0.051879294 -0.03576611 -0.38213995 0.3840925 -0.082765654 -0.5635343 0.4334241 0.2597477 -0.2593582 -0.06164223 -0.18126132 0.0146413 0.5087182 0.086432464 0.35409206 -0.096250616 0.37747508 -0.3542515 -0.07559125 -0.063134514 0.45071217 0.3998256 -0.2938003 -0.3247799 0.41926 -0.26323333 -0.23539573 -0.35531372 -0.07874348 -0.029419359 -0.29877904 -0.46953347 -0.3132504 0.8873177 -0.37442064 -0.31575444 -0.08771051 0.08592287 0.12080703 0.07930309 -0.22547272 -0.3868041 0.36484268 -0.43828496 0.98916745 0.41522095 0.1753029 0.4835481 0.1352835 0.30489194 -0.40430933 -0.025765367 0.22902836 0.61553085 0.0165893 0.4647625 0.19162987 -0.64484644 -0.5762041 0.10205439
88 -0.14059834 -0.23265587 0.46839944 0.18838017 0.0018581289 0.12383182 0.20003961 0.20841038 -0.011683381 -0.20529741 -0.04344463 0.57957166 0.524797 -0.066316426 0.2519168 -0.31572014 0.0017972289 -0.45690906 -0.38644397 -0.56961197 -0.0759609 -0.010314993 0.40132126 -0.48540062 -0.29373425 -0.18701267 -0.36660016 0.51865846 0.38111776 0.6254447 -0.13084783 0.091384694 0.3097246 0.08373182 0.16724604 -0.20971574 0.12045856 -0.65030956 0.45661807 0.1588895 0.19266535 0.24043183 0.3394232 -0.024939382 0.30485782 -0.027545752 -0.15363957 -0.36610612 0.22639452 -0.37513492 0.47472307 -0.100488484 0.047809016 0.08750657 0.32069257 -0.5703501 0.32780853 -0.35433722 -0.07393509 -0.50168097 -0.17153521 0.3352585 -0.15586539 -0.3457249
41 -0.016044682 -0.14328656 -0.117125474 -0.27990007 0.050787672 0.55070657 -0.3093263 0.052243646 -0.1925054 -0.21209972 -0.032883797 0.539482 0.1531524 -0.35850173 -0.38720098 -0.1366972 -0.29624188 -0.028132487 0.9853748 -0.11377075 0.37005737 0.98928344 0.48617163 0.39100996 0.11945463 -0.2283516 -0.34109005 -0.0999338 0.31635857 0.20540355 -0.20305228 -0.0022148385 0.8519902 -0.35687083 -0.68178564 0.5128686 0.3165235 -0.279193 0.34196508 -0.19957107 -0.08644229 -0.21881147 0.14164747 0.24328785 -0.024377784 -0.2854585 -0.75295013 -0.030852472 0.41113955 0.072963685 -0.116295405 -0.26811415 -0.3105311 -0.0109627405 -0.16858383 -0.15792161 0.037100725 0.62434554 0.44763753 -0.5622345 -0.33162516 -0.37843826 0.11423894 -0.4395433
98 0.14054687 0.471375 0.25834024 0.3950876 0.02930587 0.6318935 0.1702363 0.13087201 0.1348102 -0.3265256 -0.140483 -0.12430334 0.50399363 0.8245467 0.27035764 0.013449126 0.74779767 -0.68821836 -0.43821728 0.08002493 -0.31874263 -0.5994095 -0.6080812 0.23334925 -0.1400827 -0.11389543 -0.48301756 0.29452997 -0.19695352 0.11107162 -0.15835942 -0.027231539 0.40148273 -0.02124846 0.65319645 -0.09918524 0.24420324 0.29224944 -0.38528028 0.39261574 -0.1284708 -0.1679821 0.072326735 0.048505947 -0.50692254 -0.564393 -0.32045835 -0.4426772 0.0034383433 0.38225162 -0.16489865 -0.07815358 0.7008987 -0.2655601 0.012610924 1.079057 0.546872 -0.46933362 0.09477994 -0.1567631 0.18675244 0.33443132 -0.14661765 0.388808
55 0.36732727 0.3700048 -0.12143936 0.14316368 -0.37294963 -0.37524232 -0.1918654 -0.20316075 0.30584183 0.16600187 -0.29575488 0.02807982 -0.22113836 0.37796885 -0.5550718 -0.027903108 -0.7802958 -0.57831544 0.3110511 0.12552439 -0.060490984 -0.121914275 -0.8823298 0.71034175 0.41315734 -0.12933472 0.0007800903 -0.44373086 -0.05694354 -0.52197367 0.0861148 -0.0018770453 -0.4077002 0.60578614 0.26614857 0.21177904 0.21550739 0.52787006 -0.23413815 -0.16972157 -0.16506681 -0.120453365 -0.3873973 0.63145584 -0.35854462 0.03912463 -0.12463437 -0.27159467 0.029451266 0.102604195 -0.11662633 -0.55542326 0.030063068 -0.18959899 0.46708986 -0.14988899 0.17544807 0.5072211 -0.31486258 0.08852749 -0.10629113 -0.52000153 -0.06746288 0.2787499
96 -0.40455768 0.3517664 0.31432676 0.11786865 -0.007855949 -0.2333969 0.015169923 0.26320747 0.09997633 -0.87463397 0.019661449 0.41524002 0.5118991 -0.22946706 0.1063437 -0.43762407 -0.0076277154 0.024779089 -0.40071774 0.29940507 0.28986576 0.14430709 -0.27605456 -0.44961452 0.4109193 -0.2860037 -0.20913893 -0.1595881 -0.01942003 0.026206018 -0.59265983 -0.059478056 -0.32561365 -0.22261539 0.0060973247 -0.19225103 0.47705787 0.35171488 0.049944486 0.3240156 0.48066023 -0.022265444 0.2806736 -0.26408696 -0.6280532 -0.08089168 -0.41419762 -0.39986297 0.09719969 -0.23944291 0.48836195 0.17145942 0.66806924 -0.33344552 -0.76757914 -0.60679656 0.006856664 0.06850597 0.091414124 -0.058061916 0.38351682 -0.10047679 -0.22800985 0.44546515
58 0.032622717 -0.4200319 0.80425656 -0.71469826 -0.16603842 -0.29229447 0.20205186 0.1872565 -0.12253037 0.32220933 0.33298892 0.5221997 0.1676938 0.19784686 0.16533765 0.035277717 -0.18026276 -0.20183183 -0.054122876 -0.22643842 -0.14284687 -0.12158462 0.017694922 -0.051737044 0.047278937 -0.329247 0.35820544 0.110962756 0.46274155 -0.041033395 0.62826645 0.1457855 0.09936221 -0.13860926 0.7284999 -0.9261137 0.6274035 -0.36215237 -0.3463102 0.21070458 0.46208754 0.17622362 0.02248793 0.8457377 -0.5570439 0.3697023 0.04699779 0.21246175 0.5407152 -0.09739949 0.71755946 -0.36296993 0.14869517 -0.12266004 0.30256087 0.038930144 -0.30246648 -0.34400117 0.16687074 -0.66566384 0.5751743 -0.036933605 0.6172519 0.2620485
43 -0.16260694 0.11434663 -0.23492558 -0.058733363 -0.063325725 0.15488379 -0.08429535 0.40784636 -0.069572315 0.29291093 -0.28975227 -0.24709031 -0.050420605 0.019455133 -0.11764082 0.15924953 -0.28104588 -0.068933785 -0.43147218 -0.0761075 0.23800541 0.1138844 -0.30040628 -0.17350912 -0.022474296 0.3107856 0.17935564 0.13248762 0.17623995 -0.12915 0.26849708 -0.031712655 -0.10251008 0.26075777 -0.28447083 0.122354105 0.46712908 -0.15803634 -0.21932636 0.10976285 -0.050149325 0.005220174 -0.511719 0.17346089 0.61499494 0.07924402 -0.3328857 -0.45223942 0.04135894 -0.43442932 0.97298557 -0.59206307 0.24305269 0.020467017 0.4433207 -0.8930072 -0.27841696 0.6528211 -0.3524583 -0.24808067 -0.2406186 -0.1169203 -0.023133442 0.009294535
27 0.4036548 -0.03546861 -0.47201923 -0.0546897 0.20275556 0.005088604 0.44616282 -0.09677746 0.0087775 0.008577225 0.79311335 -0.06060103 0.13055249 -0.8342192 -0.077886194 -0.39387265 -0.8572048 -0.39639717 0.44710687 -0.17114681 0.09110042 0.012531111 -1.0337051 -0.067696184 0.23448509 -0.18531778 0.43694505 -0.49369285 0.23904854 0.2991054 -0.07056919 -0.029251698 0.17449053 -0.2513347 0.65404713 0.054092012 0.84053797 -0.21638599 -0.27579913 0.5204278 0.3977337 0.5188139 -0.6856666 0.39147073 0.34881777 -0.050658513 -0.58280873 -0.34013557 0.73947555 -0.032893017 0.14364235 -0.29734597 -0.06892904 0.04027986 -0.45212048 -0.5381796 -0.09158656 0.42744833 0.75529635 -0.13692142 0.24718435 -0.44011483 0.49243027 0.0798113
87 -0.88810146 0.7491948 0.28360566 -0.1010637 -0.17810823 0.34143773 0.09876819 -0.17035851 -0.09171034 -0.14630117 -0.1843106 0.23469056 -0.044576444 0.551728 -0.13629013 -0.0067370124 0.15267432 -0.63964975 -0.17097989 -0.4241655 0.28905782 0.13325271 -0.32696036 -0.015222975 -0.42129618 0.0961286 -0.64014345 0.43486956 -0.04561232 -0.730796 -0.25511646 -0.54077536 -0.22644404 0.452439 -0.29501003 0.21806511 -0.06539991 -0.10091878 0.4179895 -0.27170828 -0.48170713 -0.19401222 0.7450574 0.14005508 0.34389368 0.3976673 0.12695007 -0.4025826 -0.34112552 -0.05080493 -0.11579004 -0.47029424 0.60401434 -0.28730652 -0.15754771 -0.24440579 0.788415 -0.13136807 -0.27515113 -0.4434787 0.20689742 -0.18330026 -0.49598232 0.01883194
20 -0.02144223 0.13722265 -0.29662675 0.07063185 0.09473675 0.16390362 0.10887965 0.39645398 0.35610923 0.12344851 -0.32137993 0.32434866 0.46742666 0.5287034 -0.016992534 -0.29426888 -0.6974937 -0.43205738 0.05789446 0.005984141 0.04476644 0.26117077 -0.7125644 0.13020995 0.72599065 0.032715835 -0.061780542 -0.3482453 0.3405376 0.16885068 0.064711556 -0.06755675 -0.06105216 0.43368593 0.03545137 0.68337613 0.57073814 -0.32472506 0.20125222 0.15495998 0.12820214 -0.32580802 -0.73000693 -0.11338365 -0.52789724 -0.005785401 -0.069731735 -0.34541982 -0.24923775 -0.683393 0.13201606 -0.3754286 -0.2663655 -0.6868388 -0.082230166 -0.033824876 -0.27794066 0.60755587 0.05049514 -0.02937626 -0.7043631 -0.17059399 0.021030104 0.5287314
91 0.26935175 -0.3764136 -0.06865162 -0.056240596 -0.20902868 0.50811815 -0.26507485 0.12636323 -0.18133938 -0.86973053 0.0070453156 0.54820246 0.4369709 -0.50520563 0.20567533 0.015256507 -0.05293289 -0.3243607 -0.13802437 -0.14394668 -0.08113115 0.14358886 0.3927841 -0.66162443 0.104675815 0.00016886844 -0.20048885 0.5210941 0.28300187 -0.20492892 -0.3614668 -0.30928525 0.23113088 0.3587553 -0.027572222 0.24809924 -0.40460247 -0.018501652 0.32655 -1.0537492 -0.7423015 0.14203095 0.8894616 0.67922103 -0.36307555 -0.24647193 -0.15699266 0.3292991 0.08764362 0.22329198 -0.053207584 -0.13593951 -0.11259714 0.3811194 0.34719047 -0.13689543 0.25085336 -0.13754345 0.4307914 0.3801754 -0.28242165 0.1734512 -0.07084374 -0.31978688
52 -0.25780645 0.51337564 0.17911097 -0.12303134 0.043643408 -0.34408864 0.4645754 -0.22427371 -0.08290339 0.2782796 0.3056747 0.6837724 0.40020463 -0.13243869 -0.282583 0.028197058 -0.21461155 0.060061596 0.40807742 -0.0030446218 -0.18967752 0.009319328 -0.6789117 -0.12957881 0.27258447 0.12065505 -0.2052496 0.37899065 0.22790165 -0.2454628 0.363364 -0.98758143 0.4169687 0.089765176 0.06325051 -0.38520762 0.18093261 -0.61803037 0.82772505 0.58434176 -0.7186456 -0.65500164 0.2034541 0.5741292 -0.1432784 0.044083193 -0.5803943 -0.09095192 0.7643679 -0.009813577 0.3424749 -0.15835543 0.15532821 0.84973294 0.09714688 0.16119839 -0.16076514 -0.840278 0.3073298 0.09855734 0.015498083 -0.63968194 -0.16779819 0.018595748
16 -0.10868214 0.2823125 0.24228546 0.207647 -0.23335889 -0.3617717 0.061200824 0.29940572 -0.4172299 0.5190934 0.4462577 0.15185228 -0.362706 -0.529199 0.14107582 -0.3367399 -0.4966506 -0.46566945 -0.24172361 -0.5930496 -0.17414825 -0.5326256 -0.43102917 0.13617374 -0.5301145 0.62051237 -0.06674478 -0.039126832 -0.36005262 -0.03176842 -0.1287003 -0.14648886 -0.03839996 -0.2864226 -0.436797 0.22392654 0.35120788 0.47358033 -0.08983386 0.20110528 -0.0221352 0.09589186 -0.49080867 0.9895478 -0.3149765 -0.26732692 -0.06675218 0.024915485 0.5055391 -0.112184845 0.7991748 0.17099494 -0.54249537 0.04803206 0.16334765 0.14145564 -0.36311555 0.15525025 -0.3596468 0.2384673 0.5365086 -0.05862468 -0.26042163 0.07522853
77 -0.6589537 0.0134529 -0.5093032 0.122738644 -0.09841626 -0.42356914 -0.103208415 -0.012489838 0.51230323 0.31394723 -0.15598765 0.65869284 0.07658738 -0.27972183 -0.015400511 -0.28940803 0.14665969 -0.2656147 -0.44949472 -0.45821115 0.4629089 0.41694656 0.63078284 -0.52927387 -0.010764697 -0.18067539 0.007950129 0.22795856 -0.17153406 -0.21120545 0.007921421 0.02368027 0.5179489 -0.34033945 0.35493204 0.6693105 0.20668703 -0.15563032 0.6838697 -0.37782693 -0.4661104 -0.04964839 0.56846195 -0.0039475546 -0.2676647 -0.24246924 -0.046914387 0.45973226 -0.4329727 -0.24380937 0.25569534 -0.12290178 -0.06297276 -0.14472982 -0.15444237 -0.46046034 -0.06619535 0.4093358 0.3086391 0.32423425 -0.39052752 0.58012074 -0.18999097 0.4720216
46 0.27651277 -0.3420644 0.08918584 0.12558244 -0.44707397 0.29613465 0.2022451 0.26810625 0.024549559 -0.235725 0.31033823 -0.30363077 -0.26654232 0.21175572 -0.036112703 0.033600174 -0.35956866 -0.26463443 -0.053973418 0.48880732 -0.21365169 -0.26476502 -0.600401 -0.7723394 -0.21786743 -0.008207353 -0.1648187 0.30112168 -0.008067511 -0.23640198 -0.4154462 0.40620273 0.3807223 0.3047243 -0.014278851 0.31915423 0.40722486 0.13164216 -0.2255842 -0.60128134 0.063597344 0.23594067 -0.17885531 0.82030714 -0.3924414 0.03706522 0.043515224 -0.2460899 -0.56728107 0.54786676 0.03680907 -0.67321104 0.19552521 0.13000517 0.46800557 -0.1681362 -0.4379642 0.042672317 -0.28731245 0.0075877598 0.6251038 0.1096574 0.43219325 0.2405378
63 -0.77226496 -0.19967489 0.13510773 -0.047948256 -0.5950519 -0.06458366 -0.08225985 0.4307356 -0.014351312 -0.6587435 -0.2833225 0.17839387 -0.40999815 0.10880625 0.39207736 -0.4774048 0.056096725 0.14977877 0.35866117 -0.522583 -0.12172464 0.2950922 0.5781776 -0.24082933 -0.20710589 -0.18785688 -0.032664962 0.6751109 0.20903625 0.13619703 0.33809063 0.05458186 -0.12625325 0.20175959 -0.10450119 -0.4841306 0.17802957 -0.16626391 -0.47151345 -0.12345489 0.28018108 0.7268287 0.47500938 0.26870826 -0.123340346 -0.45444772 -0.5383924 -0.100111775 0.13261205 -0.07689675 0.54444313 0.18470679 0.18047275 -0.3542621 -0.28437495 -0.4887263 -0.46309045 0.22495887 -0.57950157 -0.17644812 -0.34926614 0.36672977 0.32863215 0.46105465
70 -0.14455608 -0.42367795 0.111538805 0.17268687 -0.5370768 -0.591217 -0.34676757 -0.046929486 0.41138878 -0.10422697 0.12774776 0.056952946 -0.84433424 0.62914205 0.043848526 -0.3157899 0.39437914 -0.40419605 0.027420478 -0.092223644 0.27528572 -0.34227356 0.009157333 0.27633688 0.117394455 0.022697704 -0.06741418 -0.44530964 -0.45400637 -0.3308498 0.099782646 0.16836081 0.57085866 0.0019016567 0.7196055 -0.03087968 -0.5100377 0.6106382 -0.29741326 -0.49022508 -0.4210896 -0.058978353 0.19399746 0.3645225 0.119022466 0.6686852 0.37449405 0.22557217 -0.15549174 -0.0053522983 0.5125666 -0.39265752 1.0191647 -0.43566322 0.2536659 -0.08388867 0.62308615 -0.2463701 -0.6483046 0.34776336 0.40205246 0.3981848 -0.7674303 0.5631964
19 -0.27155912 0.8039823 0.23037632 0.08683426 -0.3357755 0.10575465 -0.20082049 -0.03715081 0.24255545 0.7367208 0.07653263 0.55184746 0.14816065 -0.37100008 -0.27740213 -0.34140092 0.5163537 -0.1743121 -0.1457567 -0.29283544 0.5307442 0.05445727 -0.58545667 0.051698573 -0.16283135 -0.37084958 -0.27660286 0.37933928 -0.15634929 -0.8981236 0.47666138 0.19956 -0.3835706 0.03576115 0.2503111 -0.7688367 -0.10380066 -0.21589786 -0.0798667 0.31665114 0.05972385 0.4965082 0.2590448 0.26691222 0.50230277 -0.08535952 0.046406027 -0.33816847 0.62673074 -0.040983815 -0.29843158 -0.08987327 0.23623623 0.07773433 0.063374884 0.057829466 0.18336013 0.27236968 0.37943995 -0.95334977 0.26075557 -0.7221498 0.1666361 0.0057921805
23 0.38772807 -0.1489683 -0.403645 0.70728767 -0.10048119 -0.31980312 0.4502561 0.26368707 0.27081382 0.2090714 -0.16828643 -0.31353787 0.36414585 0.04109836 -0.10211904 0.1476628 -0.62183017 0.34714383 0.5040607 0.44013953 -0.024566136 -0.49890614 -0.40759858 0.16778168 0.16530144 0.79276145 0.21853541 -0.0040111123 -0.074776165 0.30096433 0.21483985 0.15710662 0.10492152 0.5079053 -0.60916173 0.54347175 0.71305716 0.060105793 -0.044411547 0.028304087 -0.05362245 -0.14017332 -1.0599086 0.25696057 0.05999894 0.26288512 -0.2262637 -1.0274429 -0.30846158 -0.27322152 0.40923798 -0.63164335 -0.0096770795 -0.13763641 0.24683788 -0.029269563 -0.62315875 0.87324035 -0.720429 0.74342054 -0.30328465 -0.3206788 -0.0503066 0.35829055
72 0.20543192 0.38478285 -0.52935255 -0.05161265 -0.38585466 0.094020724 0.30599865 -0.21249197 -0.33699408 0.4846353 0.093965106 1.1446724 -0.07609765 -0.25967267 -0.20906702 -0.18086371 -0.23018861 -0.5469976 -0.32790717 -0.23594242 -0.2331253 0.1162641 -0.22475357 0.47538602 -0.5000151 0.7504336 -0.027158879 0.13766818 0.23344135 0.08491864 -0.074215926 -0.29209986 0.608779 -0.0016111764 0.16488075 1.087387 -0.050388776 0.098758124 0.19894995 0.26980585 -0.7855438 -0.18549453 -0.038996648 -0.1502236 -0.37335175 -0.37967739 0.032975595 0.22022378 -0.01312004 0.2788358 -0.0028028183 0.014862415 0.42220956 0.3240977 0.4354032 0.17440459 0.4655474 -0.10528662 -0.15372044 0.35880807 -0.17411135 -0.037897527 -0.22582196 0.68397087
49 0.04836169 0.503569 -0.7880907 -0.046804287 -0.24191216 0.68591297 0.5696992 -0.01252156 0.21662728 0.4536743 -0.50280595 -0.05741691 0.018132338 0.5439382 -0.035923842 0.20963466 0.6810603 -0.3476407 -0.4207384 0.1214973 -0.079032 0.07618554 -0.07448785 0.18207532 -0.54658943 0.02749072 0.16847874 0.4360083 0.23811638 0.41220102 0.39429635 0.036430992 0.5848951 0.39509714 0.311554 0.5413669 -0.1008375 0.4103551 -0.25310847 0.509166 -0.064085096 -0.15650807 -0.02172701 -0.11216217 -0.27383366 -0.5903104 -0.043060843 -0.43914223 -0.20386241 0.31410107 0.2990582 0.057227544 -0.018094404 -0.046812706 0.2139815 0.3454095 -0.032382876 0.44849727 -0.11177223 -0.39386734 -0.3640802 0.3841938 -0.37271607 0.36399007
50 -0.43845874 -0.35798144 0.37730682 0.69038165 0.20554766 -0.11218942 0.26060176 -0.12303604 0.70246166 -0.22359599 -0.37315312 -0.8212867 0.5110979 0.7228064 -0.22083816 0.1479923 -0.10175881 0.06792084 0.30118468 0.27207896 0.09065545 -0.4819582 0.55035055 0.044196907 -0.043121353 -0.32983747 -0.1773282 0.4597876 -0.0075099277 0.10873866 0.5798801 0.26800945 0.81622434 -0.053065952 0.45178634 0.200037 0.76736 -0.19750457 -0.15298864 0.57354116 -0.48474184 0.07806273 0.48197702 0.1525174 -0.11895172 0.33868128 -0.39854315 -0.39784455 -0.46627885 -0.211484 0.4188268 -0.7613992 0.8003611 -0.084534355 -0.1276171 0.39215755 -0.24699323 -0.10381632 -0.42830747 -0.32826304 -0.29440424 0.20443796 0.18978985 0.36347124
78 0.032382872 0.03301554 0.44311294 0.43637368 -0.28445193 0.14104438 -0.35556784 -0.5621551 0.6552175 0.55439746 -0.46738675 -0.37661925 -0.17039098 -0.2385136 0.029414594 -0.0016531235 -0.13954264 -0.03028979 0.49713817 -0.018770082 0.17964332 -0.007986446 0.39507115 -0.48323268 0.14217456 -0.2119247 0.47928837 0.0014164984 0.34301728 -0.19761528 0.7747071 0.18010302 0.29520196 0.2571058 0.5049785 -0.47355026 -0.22598341 -0.17030095 0.2526245 0.2252571 -0.2564442 -0.067859046 0.1713389 0.59392333 -0.037177436 0.26384285 0.006257321 -0.2546075 -0.118602775 0.2062284 0.45140192 -0.64399564 -0.37145716 -0.35396218 -0.28491995 -0.6368994 0.20191456 0.29525697 0.18003258 0.25748166 0.05421135 -0.09597268 -0.03774301 0.3907494
32 -0.029589286 0.30521756 -0.06679488 0.73472005 0.3968386 0.35691324 0.04500479 0.14894322 0.005729928 0.25832248 -0.00090215553 0.1719309 0.19003397 -0.58721673 0.033304464 -0.4175657 0.22694436 0.42817944 0.2259375 0.05920235 0.25636566 0.48078972 0.20912914 0.20872039 0.278358 -0.61364937 -0.7961548 0.12303336 -0.32746485 0.2592865 -0.5250275 -0.62169206 0.54307824 -0.21958736 -0.4627982 -0.08887631 -0.15313949 0.7101219 0.69033664 0.77356523 0.34734538 -0.55715173 0.5174722 0.16010062 0.07880231 -0.1975736 -0.5198752 -0.6555307 0.34032705 0.16753756 0.44953397 -0.3269112 0.053464863 0.3808314 -0.4636776 -0.26510546 0.29111496 0.3192486 -0.13901708 -0.23614423 -0.2619535 0.21460794 -0.6284598 -0.45078084
79 0.1533498 -0.2915787 -0.4361683 0.30501398 -0.33169767 0.13480768 -0.36308926 -0.15263784 0.0075142095 -0.10882498 0.3379503 0.53753644 -0.19784096 0.15289855 -0.46434733 -0.61081177 -0.00074152416 -0.66157055 -0.062428005 0.44458857 -0.45812985 0.332945 0.12647218 0.61369115 -0.23897104 -0.8074687 -0.21413788 0.393424 0.40403098 0.0007536242 0.2550108 0.24358803 0.46824038 0.251007 0.43799964 -0.24159864 0.0069859168 -0.37950957 0.24145435 0.14702657 0.047260586 -0.25613835 0.551445 0.52869713 -0.6269532 -0.6320876 -0.34943023 0.060103714 0.49552202 0.18045591 -0.25086525 -0.61719996 0.017198043 0.19585772 0.58419377 -0.21402101 0.30891237 -0.35616642 0.34761113 -0.1566036 -0.2760592 -0.2691281 -0.039409406 -0.3876951
93 -0.30698436 -0.95633227 0.12739344 0.545567 -0.20043215 0.01554258 -0.23869751 0.36307454 0.12008068 0.0962416 0.2641042 0.5012026 0.0124079045 -0.18961105 -0.5429657 -0.54504275 0.52197844 -0.19733429 0.033605125 -0.6337712 -0.16211958 -0.23134875 0.6176654 0.26018667 -0.47646832 0.005687112 -0.050140847 -0.35415208 0.4083274 -0.058790356 0.12675756 0.13515212 0.1306295 0.098813705 0.20181823 0.2181933 0.2589016 0.10741697 0.21503581 0.6770082 -0.24959314 0.50268465 -0.0346792 -0.3984531 -0.1291496 -0.5061816 0.50069755 -0.21919079 -0.07030129 -0.29369357 0.63901675 0.0014455462 0.6741584 0.33300546 0.470128 -0.10546116 0.58365726 0.18418679 -0.3210306 0.5256973 -0.31459767 0.22001317 -0.23935631 -0.32285002
5 0.08416106 0.46553376 0.4115477 -0.31764892 -0.4436803 0.012952953 0.35622463 0.048371423 0.076031506 -0.21827367 -0.85750574 0.4643685 0.46609688 -0.16554394 0.4118116 0.42104673 -0.4339499 0.11426689 0.10539372 -0.23144636 0.294984 -0.11121865 0.60509396 -0.052145492 0.511908 0.41904753 -0.07942253 0.4160602 0.22142705 0.56163937 0.16038382 -0.12691614 0.298477 0.60020655 -0.58586186 0.21103203 -0.16996592 -0.07409479 0.69125974 -0.40076736 -0.42780116 -0.36885393 -0.005024829 0.1724175 -0.38103685 0.04434839 -0.104315974 -0.37343767 0.18911982 -0.048220698 0.027420007 -0.35464087 0.041538894 -0.2463416 -0.5988689 -0.107038155 -0.33862665 0.17197739 0.030908706 0.20575854 -0.49353746 -0.27264342 -0.16213393 0.71681935
4 0.12972501 -0.15853643 0.85651314 0.5668802 -0.81387156 -0.34298286 -0.44961384 -0.347321 0.21198118 -0.17026092 -0.6150377 -0.3304139 0.17195994 0.11882377 0.1197137 -0.043657754 -0.18319176 0.36715117 0.6601292 0.12313886 0.43623692 -0.2519923 0.1156338 -0.37638855 0.37436503 -0.28649956 -0.08551462 -0.3684855 0.4732138 -0.34689492 0.5867648 0.692781 0.9303694 -0.43814597 0.27927297 -0.38934243 0.10927468 0.091681816 0.26480603 -0.69954836 -0.21398468 -0.7164847 -0.09933885 0.69995975 -0.4432599 0.21027339 -0.085282914 0.04540683 -0.012430563 -0.33980218 0.101842575 -0.11528222 -0.21513842 -0.09313312 0.37413797 -0.13615118 -0.5487824 0.3885071 -0.32630956 -0.13273472 0.25445297 -0.3324332 0.17232044 -0.25263947
57 0.33953813 0.10380025 -0.27066585 -0.005139199 -0.2304909 0.13378288 -0.44453397 -0.43975112 0.09729663 -0.7783271 -0.7498908 0.23256138 0.041302763 -0.06987747 -0.16592728 0.2044359 -0.5674647 0.06708664 1.0437496 -0.20992693 0.4215048 0.11473512 -0.32192302 0.32813698 0.49959397 0.1313539 0.7896633 -0.32976475 0.42537847 -0.21777551 0.4498671 -0.08087383 -0.12106478 1.0626274 0.02642741 -0.3448355 -0.36641842 0.24446794 0.19599938 -0.523497 -0.33499268 -0.007643893 -0.19895811 0.11374712 -0.19943403 0.63335526 -0.13706867 -0.40292934 0.47548833 0.59561116 0.12560359 -0.73725474 0.08122064 -0.13131164 0.014586359 -0.008935758 0.7128972 0.47059086 0.29716733 0.19126907 -0.3834138 -0.24160074 -0.10803115 -0.0709575
22 0.75431794 -0.45112005 -0.07730369 -0.14256217 -0.20150617 -0.6485224 0.09392759 0.27110896 -0.32375607 -0.29513463 -0.16980879 0.56003803 0.24285512 -0.61613464 0.5510531 -0.2731874 0.19740978 0.0050121862 -0.7605822 -0.013314354 0.13156864 0.16360718 0.7217108 0.055020135 0.04842969 -0.119112544 0.096203804 0.2782299 -0.3373076 0.31815144 -0.7505868 0.10001042 0.34530663 -0.13672781 0.28667164 -0.14304876 0.34293875 0.6132006 -0.253663 0.31993696 0.42447108 0.38770312 0.28327468 0.05915816 -0.3203903 -0.22867785 -0.4628405 -0.09695496 0.44691715 0.33318 0.10639568 -0.44522303 0.86491376 -0.270065 -0.57436615 -0.6682648 0.3368951 0.10283039 -0.36587718 0.30750552 -0.17432028 0.8441926 0.1580696 0.7099009
60 0.27670813 0.22103874 0.4267882 0.10459603 0.16662903 -0.12256891 -0.33561048 -0.11444396 0.2840833 -0.31367654 -0.4442955 0.17158788 0.6148783 0.16742305 -0.6256063 0.3846811 -0.5808478 0.007300147 0.55525905 -0.28350228 -0.47516754 -0.10419431 0.09241271 0.5474699 0.0957835 0.034250736 0.18558694 -0.34690332 0.014282064 -0.11530013 -0.11672227 0.17448387 0.054278765 0.98304504 -0.53957534 0.4358099 0.14929657 0.3013857 -0.0017834341 -0.0012620031 -0.75107324 0.071944445 0.09749277 0.3640266 -0.13136242 0.046518993 -0.347668 -0.44085366 0.33961564 0.69238853 0.39022732 -0.048684113 0.54595476 0.39846805 0.65127695 0.26815873 0.07511098 -0.042706 -0.12667882 0.31265938 -1.0890188 0.19623862 -0.8435751 0.24593362
31 0.56660664 0.50976646 -0.14066331 -0.52874684 -0.22637174 -0.6539243 0.6265673 -0.11003209 0.015458715 1.3785605 -0.5560832 0.1402089 0.24234217 -0.8080668 0.16144371 0.11991586 0.061880503 -0.7341163 0.3698173 -0.5418558 -0.15488002 0.07714115 -0.4313723 -0.81984484 0.29927933 -0.1009156 0.28992873 -0.011523062 0.14806867 -0.641018 -0.038051777 -0.20352614 -0.12824205 0.32703793 0.14863618 0.28580916 -0.17246999 0.30838737 0.033941586 -0.15216333 -0.8179207 -0.34385356 -0.4300373 0.44626868 0.7365246 -0.4631776 0.29071775 0.48154658 0.39404246 -0.16046973 -0.5472434 -0.29319283 0.3636819 0.17394367 0.063832276 -0.5504528 0.22476281 0.31062216 -0.1377908 0.24598993 0.5289975 0.0715575 -0.6201431 0.5255342
56 -0.18877201 -0.25848433 0.050581705 0.2550319 -0.072718926 -0.8141842 0.31156838 0.23643164 -0.2088404 0.57717943 -0.11115423 0.66024446 0.08346884 -0.9393975 -0.32570285 -0.535567 0.2967354 0.09585173 -0.14381593 -0.01827941 -0.22002673 -0.03556484 0.1347896 -0.61249477 0.047869522 -0.44474992 -0.24793258 0.46066087 0.3393514 -0.47870988 0.28140303 -0.38644952 -0.76030374 0.24808607 -0.31340864 -0.6256815 0.14222 0.34459013 0.1956679 0.2791722 -0.03011545 0.2686212 0.16125445 0.17943995 -0.22656752 -0.40686783 0.39455447 0.010146024 0.5403223 -0.0270856 0.13667698 -0.15797752 0.60776013 0.5023394 0.28511608 -0.7089149 -0.04826958 0.0072049256 -0.39505947 0.3317927 0.30630368 -0.027584955 -0.62752354 0.13436905
14 0.220777 0.044813257 0.24010895 0.24565443 -0.22845075 -0.06877381 0.40310147 0.25460854 0.23713344 -0.9160877 0.23445854 0.11677633 0.27878904 0.38739046 -0.1816993 -0.22220582 -0.031203937 0.14236513 0.0015077286 0.85083205 -0.17980811 -0.19534592 -0.94230115 -0.14525649 0.14081019 -0.20639476 -0.33448032 -0.66702425 -0.36724836 -0.14109011 -0.5818238 0.6188614 -0.39368805 0.41771254 -0.38180223 -0.05245801 0.25824708 0.8226813 -0.29283842 -0.13484555 0.46715626 0.25956208 -0.22398707 0.52780414 -0.3167102 0.3283102 0.0077905413 -1.1450773 -0.3193825 -0.029182294 0.43769413 0.28763217 0.43483257 -0.19793655 0.44018477 -0.1227495 -0.42639038 0.06825055 -0.24593389 -0.15423906 0.43486062 -0.109750144 -0.72064614 -0.07488673
83 0.2759697 -0.08607644 -0.49683657 0.8607022 -0.2145887 -0.33146906 0.34252608 -0.08601458 0.21969536 -0.13866344 0.35017505 0.56637853 -0.05955593 -0.2597867 -0.10948214 -0.9430592 -0.43919602 -0.4156869 -0.777973 0.78808594 0.16270453 -0.0212976 -0.96023333 0.58187217 0.11720058 -0.6972101 -0.033106253 -0.41800767 -0.69333756 0.010604611 -0.17781036 0.21369137 0.14092538 -0.12893082 0.2833464 0.49448487 0.24609573 0.11383153 0.32946277 -0.043156024 0.50092167 -0.41189894 -0.02167921 0.16934167 -0.3999872 0.49889502 -0.09237285 -0.6093834 -0.61120176 -0.4621178 0.31757253 -0.65475655 0.07086806 -0.59614426 0.17690808 -0.6234996 0.1978838 0.1219373 0.28107423 0.034729593 0.035734802 0.3625621 -0.72117335 -0.053433307
48 -0.6619157 0.7223531 -0.013250195 0.27637106 -0.01694189 0.6426307 0.013142117 0.077131785 0.39840257 0.44104892 -0.2756806 0.15737286 0.0010918425 0.5983722 0.07203477 -0.49087495 0.49063477 -0.1347436 0.15825748 -0.6111854 0.47303241 0.49323106 0.18053363 -0.034211677 0.13283853 -0.28778133 -0.44461778 0.47731447 0.17621315 -0.47149003 0.5381577 0.07362448 0.4250429 -0.31798372 0.5373008 -0.13563994 -0.024333687 -0.39726344 0.2078354 0.6980562 -0.36934838 -0.10648264 0.43115488 -0.07291092 0.38174787 -0.43854097 0.07768116 -0.03442784 0.3753344 -0.40963206 -0.009037262 -0.2035965 -0.46134385 0.19662802 -0.25934505 0.31289956 -0.42900681 0.5788424 0.38291484 -1.1827255 -0.79880553 -0.15703417 0.11916589 -0.23463023
11 0.526451 0.22084811 -0.047693986 -0.3573356 -0.20310736 -0.6540827 0.42611966 0.009836229 0.14847422 -0.11275151 -0.30457252 0.91517603 0.37681174 -0.13904032 0.7005441 -0.24325848 -0.18453059 -0.054401983 0.78056395 0.028036732 -0.07451351 0.20539933 -0.25959918 -0.27221385 0.7586354 0.676973 0.07164569 -0.07199571 0.096264325 0.24805877 -0.26909414 -0.23625983 0.146764 0.10923084 0.2176113 0.10157728 -0.21361 0.0808356 0.1859761 -0.111947395 -0.28968534 -0.44506887 -0.53839284 0.25302863 -0.4170214 -0.0019293606 -0.07955794 -0.08116805 0.43372598 0.09578215 -0.26978385 -0.20701878 0.043396685 -0.18920727 -0.683284 0.27569652 -0.12465616 -0.03496441 -0.26823747 0.630298 0.26937827 0.065450594 -0.098799065 1.0948092
75 0.16171639 -0.17105585 -0.41612175 0.37887955 9.598354e-05 0.095357426 -0.45072898 0.7241643 0.014637507 0.16597563 0.29341975 0.5752518 0.64010954 -0.85468715 0.8257895 -0.41636533 0.10556613 0.17918268 -0.14550309 0.016025338 0.42065945 0.051893994 -0.07171121 -1.07339 0.4661795 0.5849397 -0.4252097 0.5771122 -0.20154537 0.016755702 -0.07719223 -0.44362697 0.4073687 -0.42784262 -0.31573692 -0.21568005 -0.14034168 -0.5171263 0.24714534 -0.62975574 -0.018778337 -0.07915292 -0.21841879 0.44979897 -0.107157946 -0.101464175 -0.4911794 0.17266308 0.24149807 -0.0855348 -0.1957041 -0.3631783 -0.1480431 -0.032884423 -0.23542921 0.1609719 -0.75787157 0.6500689 -0.20176962 0.3937822 0.003903645 0.04906264 0.28464228 0.36816528
73 -0.49777326 0.24019787 -0.8232227 0.49660903 -0.19844683 0.80298 0.42114067 0.078599826 -0.664649 -0.7381643 0.5441932 0.09123863 0.140487 0.03753 0.08511487 -0.30373463 0.1177279 0.35059568 -0.3052017 0.75352514 0.66374665 0.0501894 -0.6328085 -0.098428674 -0.45815742 0.5427186 0.16258177 0.49086586 0.1350201 -0.4138715 -0.30767313 0.043133557 0.008366982 -0.21702607 -0.6004355 0.23173004 0.39295778 0.6172503 0.20019525 -0.4031355 0.51293343 -0.01743129 0.28105 0.2504169 -0.39869428 0.23093121 -0.2429336 -0.885429 -0.46642917 -0.05730119 0.36881822 -0.20725156 -0.34190187 0.13601917 -0.17893037 0.12683699 -0.5289555 0.74979615 0.31565723 -0.70986575 0.3872363 -0.254283 -0.045530833 -0.68299687
39 0.08516041 0.6006182 -0.10399606 -0.22594859 0.2126455 -0.06907111 -0.3343839 0.6068917 0.09545966 0.6814808 0.40382448 0.52822626 0.1585102 -0.37030086 0.19159064 -0.38909432 0.4929556 -0.09191695 -0.14330536 -0.49623364 0.26427382 0.21292247 -0.77523816 -0.9010414 -0.51954114 -0.19659199 -0.14694427 0.17862056 -0.086571045 -0.7399218 -0.40201768 0.8133297 -0.47131145 -0.5505486 0.18807924 0.10733851 0.603621 0.22550033 -1.0135744 -0.07170408 0.45418334 0.6785895 0.017990844 0.12133252 0.68669283 -0.12971011 -0.42241815 -0.030379403 0.03127334 -0.34368104 0.17779236 0.039568927 0.07357125 -0.53010803 0.44259697 -0.07544143 0.19970512 0.9013252 -0.3912772 -0.5541598 0.535572 0.19220807 0.55102277 0.210925
86 -0.40372166 0.18811259 0.0788102 -0.6995994 0.25389987 0.016455004 0.5697284 -0.51056933 0.11705369 -0.19115984 -0.19554123 -0.63402927 0.28804243 0.4348081 -0.2694176 0.33460426 -0.04719118 -0.3861062 0.28869668 0.1521742 -0.14899608 0.55689186 0.1371336 -0.87396675 0.15309861 0.37223634 0.3939486 0.18032452 0.0036212234 -1.3346171 -0.07555493 -0.75198907 0.033343185 0.32038698 0.052693926 0.7764501 0.68228126 -0.0065647652 -0.16071959 -0.087578155 -1.0366946 0.19379695 0.70968026 0.62658405 -0.24194382 0.028252522 -0.2165518 0.35366568 -0.24174707 0.6474942 -0.51727104 -0.34340686 0.6485692 -0.26500165 -0.92205805 -0.45389974 0.039959088 0.3741907 0.16954944 -0.3413419 0.26003745 0.14171019 -0.24629107 0.45641208
10 0.15199858 0.32655138 0.0685101 -0.34500653 -0.05748791 -0.14405419 -0.22728716 -0.030078946 -0.2308177 0.37606245 -0.5824356 0.8563467 -0.29217455 0.13910753 -0.26918393 -0.19718029 -0.2973675 -0.54325044 -0.013816087 -0.591535 0.2339466 0.43767986 0.08107213 0.30537876 -0.34125298 -0.08553552 0.4713763 -0.5361834 0.57531285 -0.3481151 -0.02135861 0.85269094 -0.718007 0.28027877 0.4077089 0.2095853 0.53570056 1.1229312 -0.3275932 0.057014037 0.40687898 0.116211765 -0.38441214 -0.30305374 -0.44922325 0.43014842 0.31242523 -0.17831229 -0.37302762 -0.011332569 0.5793386 -0.387271 0.04648526 -0.76111084 0.3329042 -0.02125793 0.78344774 0.85856885 -0.023167565 -0.5828905 0.35192662 0.25266147 0.08643174 0.08003279
65 -0.7074277 -0.36151695 0.13436814 0.5786427 -0.27377662 0.13445054 0.79177666 0.17343478 -0.08095 -0.44111127 0.060001478 0.2614444 0.77090824 -0.052395232 0.32915524 -0.5336076 0.29012334 -0.53221357 -0.04095445 -0.61109334 0.07632641 0.23794837 0.7079335 -0.33780214 0.15459883 0.3756543 0.3060972 -0.424358 -0.8693427 -0.3626842 -0.028109808 -0.23748918 0.45501456 -0.39020815 -0.124036215 0.19926816 0.5195256 -0.5697344 0.78874314 0.5960939 -0.48552942 0.16785303 0.03332708 0.38014513 -0.306034 -0.6911757 0.31950176 -0.23270458 -0.44766912 -0.34390432 -0.22475249 0.3671643 -0.16577688 -0.33315355 -0.48741272 0.115227304 -0.45320025 0.031596456 0.17620158 -0.31727332 -0.097288236 1.0399852 -0.3631984 0.18548466
36 1.0289516 0.51920617 0.63689226 0.19135533 -0.3543277 0.014878661 0.5651509 -0.13155009 0.08178038 0.39303532 -0.30881312 0.88773406 0.6370976 -0.5356679 0.3291311 0.17054604 0.03260498 -0.35709473 -0.6370948 -0.5511049 -0.013717321 -0.4201702 -0.019982265 -0.0035016122 0.2496635 0.28707257 -0.43222353 -0.19410923 -0.9442722 -0.14800341 -0.043655667 -0.5085013 0.67205733 -0.07146788 0.32875943 0.61080474 -0.25495958 0.48993343 0.45990095 0.20637575 -0.82190335 -0.25176316 0.08650117 0.1814619 -0.78995097 -0.24632521 0.4763059 0.21637498 0.3488431 0.26942828 -0.28074658 0.05117653 -0.19490355 0.28452975 -0.26804733 1.1497599 0.33112645 0.22644775 0.46177533 0.27527228 -0.1398576 0.29598823 -0.48996726 0.05932328
45 0.16078348 0.45241076 0.73644274 -0.19176911 -0.18143536 0.32755417 0.67160714 -0.1657091 -0.1361741 0.30113482 -0.5314542 -0.047115818 0.10452589 -0.08325541 -0.07110559 -0.35140803 0.3699 -1.1461203 -0.042064995 -0.05045331 0.36570907 -0.123602234 -0.09575118 -0.070455454 -0.09050892 -0.63974893 -0.40503877 0.035596337 0.038498536 -0.2693625 -0.013074128 0.06501702 0.027956486 -0.44682205 0.2610872 -0.017543312 0.21975628 0.0298043 0.14571765 0.8612195 -0.40983552 0.11413443 -0.01683034 0.37547806 0.15611538 -0.3099127 0.46987876 -0.06817622 0.62379116 -0.55994487 -0.12908821 -0.14574116 -0.42073306 -0.14637893 -0.6991103 -0.31392577 -0.026500875 -0.1465899 1.0201544 -1.2309066 0.52344036 -0.8822358 -0.12222471 -0.6514401
40 -0.443619 0.0298667 -0.55586135 0.32859996 -0.51532793 0.45292637 1.2243367 -0.18455158 0.009884303 0.3383915 0.015479751 0.19154713 0.14540581 0.2408216 0.08791755 -0.3534197 0.1124783 -0.50000435 -0.09134718 0.033159032 0.48763087 0.11730115 0.75217885 0.45945117 -0.9101341 0.81387556 0.45290476 0.43625352 -0.36082783 0.45194626 -0.08093207 0.23770593 0.7833815 -0.06304615 -0.47310418 0.7553534 0.11976523 -0.21993567 0.75923604 0.7742546 -0.12005067 0.24235351 -0.14943205 0.266908 -0.09933306 0.10786744 0.62270707 -0.52589566 -0.20869996 0.15363297 -0.18493205 -0.44890836 -0.04165089 -0.0037171459 -0.2547312 0.13976638 -0.038318872 -0.06831408 0.27251157 -0.95698535 0.4293479 0.43560633 -0.31871235 0.13773285
76 -1.0999272 -0.25737134 -0.06452999 0.4131168 0.076746516 -0.002207074 -0.024897104 -0.020523287 0.04241266 0.36014754 0.7933646 0.8258025 -0.102979034 0.69333583 -0.48219022 0.10750741 0.5575007 -0.015236597 1.1693207 -0.17637606 -0.5844221 -0.055254348 -0.3196483 -0.12800738 0.34276345 -0.6153821 -0.91752535 -0.3547614 0.8002501 -0.54330444 0.79078954 -0.58682144 0.03879364 -0.34056684 0.35608247 -0.48291403 0.055596452 0.10622423 0.03395364 -0.7895492 -0.23896885 -0.45131204 0.95181334 0.4351034 0.1321014 -0.2398471 -0.13970654 -0.505268 -0.37369314 0.05883203 0.031150872 0.4803388 0.21488658 0.24426448 1.318737 0.29620248 0.30609104 0.019425258 -0.7197157 0.009066652 -0.21869928 -0.2363063 -0.5041455 -0.31381655
62 -0.4205748 0.6163666 0.047706302 0.45083463 -0.22541718 0.351983 -0.09210248 -0.17833185 0.24345222 0.13315675 0.3913822 -0.0993689 -0.5173946 0.39883125 0.060799383 -0.108195364 0.24091828 0.4861161 -0.2913631 0.4131069 0.89031047 0.08922786 -1.3600724 0.051150687 0.106025144 0.021368863 -0.09613319 0.24745621 -0.8842866 -0.58405524 0.66001534 -0.2745079 0.9933693 -0.18864165 0.123321496 -0.6125525 0.35551217 -0.264664 -0.012563754 0.4231359 0.24512482 -0.3276963 -0.43868428 -0.07724597 -0.40946397 0.52890295 -0.36708272 -0.22360852 0.010036039 0.6661065 0.57879573 -0.94849944 0.9804311 0.056961946 -0.12788196 0.9310374 -0.29713225 -0.16116384 0.24403511 -0.5077786 0.53839827 -0.0639281 -0.19628258 0.5346084
69 0.17572331 0.6508876 0.7731085 -0.08734014 0.07651686 -0.54729176 -0.4791646 0.03590313 0.103311874 -0.18156888 -0.63399434 0.88097584 0.2819891 -0.31231788 0.8009535 -0.06917054 -0.6270698 0.2446344 -1.065926 -0.7483525 0.73468876 -0.14930971 -0.52457887 -0.2854191 0.71537024 -0.08982737 -0.6178955 -0.43439272 -0.36551458 -0.2614221 -0.6066166 0.15312736 0.07718612 0.36094198 0.23804936 -0.54616904 -0.17220074 0.7492667 0.55836743 -0.46246892 0.5217758 -0.7266361 0.18468809 0.32691634 -0.4367825 1.1700218 -0.27901638 -0.18314284 0.3654901 0.31157902 0.23873036 -0.5702066 0.355892 -0.4044136 -0.0040574814 -0.18288457 0.6357337 0.10814944 -0.2748909 -0.17692098 -0.122044474 0.18205729 -0.61048025 0.06972241
